network "BayesNet311" {
}

variable "z6" {
	type continuous;
}

variable "z7" {
	type continuous;
}

variable "z14" {
	type continuous;
}

variable "z15" {
	type continuous;
}

variable "z16" {
	type continuous;
}

variable "z17" {
	type continuous;
}

variable "z19" {
	type continuous;
}

variable "z2" {
	type continuous;
}

variable "z8" {
	type continuous;
}

variable "variable410555" {
	type discrete[7] { "state0" "state1" "state2" "state3" "state4" "state5" "state6" };
}

variable "variable1531931" {
	type discrete[13] { "state0" "state1" "state2" "state3" "state4" "state5" "state6" "state7" "state8" "state9" "state10" "state11" "state12" };
}

variable "z10" {
	type continuous;
}

variable "z4" {
	type continuous;
}

variable "z11" {
	type continuous;
}

variable "z1" {
	type continuous;
}

variable "z3" {
	type continuous;
}

variable "z9" {
	type continuous;
}

variable "z13" {
	type continuous;
}

variable "z5" {
	type continuous;
}

variable "z18" {
	type continuous;
}

variable "z20" {
	type continuous;
}

variable "z12" {
	type continuous;
}

probability ("z6" | "variable410555") {
	("state0") 0.10809780060547974 0.01;
	("state1") 0.10597362705786134 0.01;
	("state2") 0.1067973693473811 0.01;
	("state3") 0.10713593913460448 0.01;
	("state4") 0.10232314708189386 0.01;
	("state5") 0.10223799821624288 0.01;
	("state6") 0.10971013227396767 0.01;
}

probability ("z7" | "variable410555") {
	("state0") -0.08963398314682897 0.01;
	("state1") -0.09209300863324311 0.01;
	("state2") -0.0882188498443693 0.01;
	("state3") -0.09161630016099429 0.01;
	("state4") -0.08505565596825736 0.01;
	("state5") -0.08915754212787752 0.01;
	("state6") -0.09703748292182328 0.01;
}

probability ("z14" | "variable410555") {
	("state0") 0.07131961867252819 0.01;
	("state1") 0.07313590956859405 0.01;
	("state2") 0.07328353704166464 0.01;
	("state3") 0.07334764856752748 0.01;
	("state4") 0.06688057974364038 0.01;
	("state5") 0.060116218332633774 0.01;
	("state6") 0.07431275053734798 0.01;
}

probability ("z15" | "variable410555") {
	("state0") 0.10834645666775217 0.01;
	("state1") 0.09775822991446022 0.01;
	("state2") 0.10101495650931837 0.01;
	("state3") 0.10572738988951856 0.01;
	("state4") 0.10626189619099081 0.01;
	("state5") 0.11123516464381966 0.01;
	("state6") 0.10230860350721055 0.01;
}

probability ("z16" | "variable410555") {
	("state0") 0.04701788169766484 0.01;
	("state1") 0.03747284032465591 0.01;
	("state2") 0.03177293978016478 0.01;
	("state3") 0.026200719006667084 0.01;
	("state4") 0.026409298229478607 0.01;
	("state5") 0.03789702138091025 0.01;
	("state6") 0.04433538929529033 0.01;
}

probability ("z17" | "variable410555") {
	("state0") 0.04829010114329205 0.01;
	("state1") 0.07388990650788262 0.01;
	("state2") 0.023578629739957595 0.01;
	("state3") 0.035523558998714934 0.01;
	("state4") 0.01925260755380436 0.01;
	("state5") 0.03727193208707643 0.01;
	("state6") 0.06720078978283457 0.01;
}

probability ("z19" | "variable410555") {
	("state0") 0.10863197648709913 0.01;
	("state1") 0.11622461509036032 0.01;
	("state2") 0.11484308347714256 0.01;
	("state3") 0.11846303380240512 0.01;
	("state4") 0.11279424442052562 0.01;
	("state5") 0.11498537247796585 0.01;
	("state6") 0.11065573105958472 0.01;
}

probability ("z2" | "variable410555") {
	("state0") 0.03188999860171319 0.01;
	("state1") 0.0225857473745777 0.01;
	("state2") 0.03355478549744713 0.01;
	("state3") 0.029887618365814196 0.01;
	("state4") 0.026199744981702328 0.01;
	("state5") 0.02300869038625536 0.01;
	("state6") 0.030370260042291576 0.01;
}

probability ("z8" | "variable410555") {
	("state0") 0.010711101774497935 0.01;
	("state1") 0.007749766149822433 0.01;
	("state2") -0.009554467443276253 0.01;
	("state3") -0.010661042523573059 0.01;
	("state4") -0.014391538568822934 0.01;
	("state5") 0.005280887298266852 0.01;
	("state6") 0.007068555284954227 0.01;
}

probability ("variable410555") {
	table 0.1782536144286564 0.15931441839324365 0.06541232825638645 0.043595490606023045 0.21131800302288326 0.09765429110035746 0.24445185419244964;
}

probability ("variable1531931" | "variable410555") {
	("state0") 0.07394459285492008 5.410379028043224E-4 0.0016464139487078649 0.08859222540158142 0.0 0.07154604746272221 0.4345475596167507 2.7290730478797465E-240 0.31888311003948616 5.690846396010472E-113 2.101808268507932E-88 0.005360884694673796 0.004938128078353485;
	("state1") 0.3207041306507306 0.0 0.0 0.05243331379620547 0.0 1.4199390576899838E-62 2.433115570029403E-247 0.6068695239760208 1.0308049778586813E-157 0.017244783604461675 0.0 5.882779791693657E-4 0.0021599699934119615;
	("state2") 0.004149427733223715 0.006990198383705768 0.23474397939808123 0.0 0.30266498986944046 0.0 0.0 0.026866561451261966 0.0 0.0 8.602189929065883E-252 0.36054850859642923 0.0640363345678578;
	("state3") 0.027091957949437192 0.024599667939488007 0.035282309984592766 0.1648835833442284 2.1926083588318996E-271 0.024518707755437866 5.942566901907032E-64 1.3063462943536143E-6 2.146539788802988E-59 0.0 0.0 0.018765987144693033 0.7048564795358284;
	("state4") 0.045430504624642605 0.4016861232059183 1.964510860627015E-114 4.7704098177063196E-40 0.24515261147319947 0.0 0.0 0.0 0.003493068343322617 0.0045801762350901765 0.0 0.29398521415193624 0.005672301965890608;
	("state5") 0.01164135974742604 0.008792410600672207 6.524417465298316E-204 0.0 2.5716821641509085E-31 0.0 6.76796E-319 0.008229068567327968 0.028074397202110014 0.0 0.9259676290776424 0.0022114049064206253 0.015083729898400771;
	("state6") 1.6064120047438218E-84 0.0 0.0 0.4766181775096624 0.0 0.1048260688351701 0.026374898748092894 2.069216582460602E-45 0.008927769417059852 0.3820220431338413 0.0 3.969524494285401E-4 8.340899067450071E-4;
}

probability ("z10", "z4", "z11" | "variable410555") {
	("state0") 0.0752894259408737 0.109513830528713 -0.12169939737030325 0.05237200811536366 -0.01200464139908057 0.01015825944549751 -0.01200464139908057 0.1301577990980436 -0.11540723130036816 0.01015825944549751 -0.11540723130036816 0.2630440799493952;
	("state1") -0.012951506869202708 -0.13437836791288102 -0.5509772341523804 0.07412774301502706 0.009504147792901126 -0.005624070732835525 0.009504147792901126 0.07559341997006501 -0.09434209730041847 -0.005624070732835525 -0.09434209730041847 0.2260528472005361;
	("state2") 0.010044734406454849 0.21941626267936376 1.087598465496607 0.04523943951913835 0.0021221429784468587 -0.010080285170441683 0.002122142978446858 0.041657954364044 -0.06056238569339983 -0.010080285170441683 -0.06056238569339983 0.12688999023322195;
	("state3") 0.015303138738493307 0.16663943334586442 0.7839372813053991 0.07378681755142776 0.013826267245329928 -0.012676134020094794 0.013826267245329928 0.09721100978899377 -0.09449256154449241 -0.012676134020094794 -0.09449256154449241 0.1928404407125019;
	("state4") 0.010431973104282743 0.6886254138272359 0.3334320574017045 0.037093202878576086 3.3869053015223916E-4 -0.0028493872861998634 3.3869053015223895E-4 0.044475788821707635 -0.0898722664297835 -0.0028493872861998634 -0.08987226642978352 0.24442380662032398;
	("state5") -0.05001684823874288 0.42274292884786535 0.11760071720046901 0.04802684911217622 -0.016853464226968595 0.013514304283821887 -0.016853464226968595 0.06387439506393479 -0.14918618361267588 0.013514304283821884 -0.14918618361267585 0.4566798275065248;
	("state6") 0.009827212459818114 -0.44309111073812885 0.001877025837940586 0.05692602284266138 0.004601934640250706 -0.011847150691177153 0.004601934640250706 0.05748645770349813 -0.05999113673640229 -0.011847150691177153 -0.05999113673640229 0.1992773414028429;
}

probability ("z1", "z3", "z9", "z13", "z5", "z18", "z20", "z12" | "variable1531931") {
	("state0") 0.06425829974266703 -0.16966344486256738 0.1291324783487376 0.16420382368026712 4.3916438336480423E-4 -7.306773383057066E-4 -0.8459749729032232 -0.014024939142970974 0.05617941417361253 0.030410324611981482 -0.007605789777845444 0.0216506601913821 -0.010570650892154415 0.01779089687148259 -0.010920429288511016 -1.1251120105271199E-5 0.030410324611981482 0.07356071317708872 0.017261227492305818 0.0301375124163245 -0.008237775575682244 0.0081002158386072 -0.004418013917263815 0.025188596295162943 -0.007605789777845444 0.017261227492305818 0.0663566196358458 -0.0168144510494393 0.007401355903648379 -0.009732573532491798 1.404369531964216E-4 0.029071418714379384 0.0216506601913821 0.0301375124163245 -0.0168144510494393 0.08176260927342494 -0.016857757368267834 -0.002859391892604623 -0.005263418306833565 -0.014657155421805087 -0.010570650892154415 -0.008237775575682244 0.007401355903648379 -0.016857757368267834 0.048410477167383725 0.009175683557158228 0.02612085992971938 -0.010138072663510385 0.01779089687148259 0.0081002158386072 -0.009732573532491798 -0.002859391892604623 0.009175683557158228 0.12482694132224842 -0.009512489079650811 0.04647704592707996 -0.010920429288511016 -0.004418013917263815 1.404369531964216E-4 -0.005263418306833565 0.02612085992971938 -0.009512489079650811 0.09593278449407891 -0.008838094692699966 -1.1251120105271199E-5 0.025188596295162943 0.029071418714379384 -0.014657155421805087 -0.010138072663510385 0.04647704592707996 -0.008838094692699966 0.1279731796188947;
	("state1") -0.07473282046893627 -0.16504083184787902 -0.4148864396727131 0.37655578552701435 -0.29093550007017516 -0.1845949585187706 -0.23550295416966247 -0.0059322957945033405 0.025906890436975208 9.129609227626284E-4 8.27070810279639E-4 0.00506363328500409 -0.005314272520607642 0.026419754300628737 -0.00982513836123573 -0.025424213654478493 9.129609227626276E-4 0.01386389016736999 0.004661133529886997 0.003237728640926584 -0.002149475972198354 0.011947492131230685 -0.004969594390957821 -0.00721035184594034 8.270708102796395E-4 0.0046611335298869985 0.018198266118165198 0.010635652127864142 -0.0038605705647668464 0.015561781749630653 -0.004757793051691184 -0.00778454411440517 0.0050636332850040894 0.003237728640926584 0.010635652127864142 0.036508008750815495 -0.006843578761906754 0.00951406437615908 -0.004649215757637964 -0.01797972117576436 -0.005314272520607639 -0.0021494759721983545 -0.0038605705647668455 -0.006843578761906754 0.05131803965504884 0.025044277553076554 0.02587184173609122 0.02187665154623616 0.02641975430062874 0.011947492131230688 0.015561781749630653 0.009514064376159082 0.025044277553076554 0.15101193092482657 -0.0035313172465116635 -0.030315319310923648 -0.00982513836123573 -0.004969594390957822 -0.004757793051691184 -0.004649215757637965 0.02587184173609122 -0.0035313172465116635 0.03345435976890046 0.02990805292883211 -0.025424213654478497 -0.007210351845940341 -0.007784544114405171 -0.01797972117576436 0.02187665154623616 -0.030315319310923648 0.029908052928832106 0.07232701065578112;
	("state2") 0.02474029164204764 -0.007127144222602301 -0.21531814573154195 0.15778132753331786 -0.0010312721655048418 1.166355848870664 -0.06010225452096668 0.43226112322316196 0.0105894907721117 6.517569818713415E-4 5.347670606339597E-4 0.0014429490681240227 -0.0029360535035397074 2.4104081925273475E-5 -4.0351974907257553E-4 0.0027068299491432883 6.517569818713415E-4 0.01092039869354262 0.0010318447639754123 -3.2725863586616623E-4 -0.0038043614173889984 5.650311957974742E-4 -1.2135748813633961E-6 0.00478055628801241 5.347670606339596E-4 0.0010318447639754119 0.01145670801026414 -0.0029307325299466488 -0.0038943833524997815 0.0012090939942064932 6.150882758909379E-4 0.006397996900445472 0.0014429490681240227 -3.2725863586616623E-4 -0.0029307325299466488 0.03203305618037568 -0.0018155716131461586 -0.005121734955187407 -0.005269194835357752 -0.010578016656414826 -0.0029360535035397083 -0.0038043614173889984 -0.0038943833524997806 -0.0018155716131461603 0.02618288772429338 -0.0016241401635502953 7.667884941418692E-4 -0.01847644660171917 2.410408192527304E-5 5.650311957974738E-4 0.0012090939942064932 -0.005121734955187408 -0.0016241401635502953 0.01145171808640174 0.001182414325432223 0.004928154811439838 -4.0351974907257553E-4 -1.2135748813631793E-6 6.150882758909381E-4 -0.005269194835357752 7.667884941418687E-4 0.001182414325432223 0.011267024802561976 0.002128369418764402 0.0027068299491432883 0.00478055628801241 0.006397996900445472 -0.010578016656414826 -0.01847644660171917 0.004928154811439839 0.002128369418764402 0.038426721005941536;
	("state3") 0.005295362645286264 0.038841386712580646 -0.19789254898201095 0.10225916661512983 -0.6064372582192671 -0.19587360376422255 0.09850029660523502 0.07794649943235973 0.054130191332921546 0.0038001161951014923 0.022988482738813296 -0.005765772778081561 -0.01726088167532713 0.011320466086205419 0.010028651363621657 -0.02317185340855643 0.0038001161951014923 0.03080914850558743 -0.0017910174040169508 0.004124263420980981 -0.0013971951467300183 0.009626901818300462 -0.001301459515725816 0.010846743268774354 0.022988482738813296 -0.0017910174040169508 0.08406204316597489 -0.011893151202365877 -0.012101549672584835 0.003856821726010101 -0.011865109216999712 -0.04766854545151082 -0.005765772778081561 0.004124263420980981 -0.011893151202365877 0.06787987452461532 -0.0021665671925692274 0.03225404347303441 -0.010434346276645157 0.009267063507852127 -0.01726088167532713 -0.0013971951467300183 -0.012101549672584835 -0.0021665671925692274 0.09297097769580953 0.012385291561390737 0.013688527714431558 0.01561946865082718 0.011320466086205419 0.009626901818300462 0.003856821726010101 0.03225404347303441 0.012385291561390737 0.15079772828999297 0.021500362443310748 -0.017809912985814122 0.010028651363621657 -0.001301459515725816 -0.011865109216999712 -0.010434346276645157 0.013688527714431558 0.021500362443310748 0.07327244458912159 -4.4980581319410706E-4 -0.02317185340855643 0.010846743268774354 -0.04766854545151082 0.009267063507852127 0.01561946865082718 -0.017809912985814122 -4.4980581319410706E-4 0.09023195245167563;
	("state4") -0.15320833483433197 0.3117828656510197 -0.31722807841336853 0.007961144832531682 0.5255666312552363 -0.19297602743909437 -0.3883484667191163 0.21486098599886305 0.023580116403176643 0.005145879304670183 -0.0017725934444655623 7.172674750711532E-4 -0.01296527567297468 0.02780383394223761 -0.010602411155356052 0.0012296555449355737 0.005145879304670183 0.03335033676548443 -0.008214988751443724 0.0014006991411671587 -0.029613838094963554 -0.009398764300852139 0.004396399487061937 -0.01301719638322604 -0.0017725934444655627 -0.008214988751443724 0.020471036200468584 0.004357947850648688 0.009535296952061848 -0.002306715660596044 -4.3294930571282833E-4 0.0024568494900185063 7.172674750711523E-4 0.0014006991411671592 0.004357947850648688 0.03229424744143595 0.0011058447777536487 0.020895289519044003 0.025205046112583195 -0.0016001060911601857 -0.012965275672974678 -0.029613838094963554 0.009535296952061846 0.0011058447777536483 0.05725736161994591 0.007424252486025902 0.007218290507087103 0.021023668941723753 0.02780383394223761 -0.009398764300852135 -0.002306715660596043 0.020895289519044 0.0074242524860258985 0.1404453548353719 0.011978687626554657 0.026949203747959265 -0.010602411155356052 0.0043963994870619355 -4.329493057128283E-4 0.025205046112583195 0.007218290507087103 0.01197868762655466 0.06961255899552216 0.012077185279247367 0.0012296555449355748 -0.01301719638322604 0.0024568494900185063 -0.0016001060911601831 0.021023668941723753 0.026949203747959265 0.012077185279247369 0.04614626725889197;
	("state5") -0.02757851099566428 -0.2370509113041527 -0.08322802574311551 -0.1119694839901466 -0.3533327354426376 0.37513593544598184 -0.6850804828540936 -0.1611938522837893 0.026558328263386173 0.006564950944178789 -0.018054574471570023 0.006121883455669063 -0.009168696148524154 0.007939539397363533 -0.006510808461815853 0.01741537872914548 0.006564950944178789 0.05455416483650549 0.019243440092179036 -0.008103392337483181 -0.018933517545046748 0.019269506785253424 -0.015368833586829451 0.03900597118351109 -0.018054574471570023 0.019243440092179036 0.05545751210514496 -0.023292636441397965 -0.010266909891528925 -0.001364401457661589 -0.0038486491418977882 -0.0041364876246593844 0.006121883455669063 -0.008103392337483183 -0.023292636441397965 0.07937726398222231 9.067978999215457E-4 0.005209185199666825 -0.02524512067957911 0.007529705398005767 -0.009168696148524154 -0.018933517545046748 -0.010266909891528925 9.067978999215437E-4 0.04068331207685105 0.00826518121999833 0.02958205329358181 -0.011722697549567692 0.007939539397363533 0.019269506785253424 -0.0013644014576615871 0.005209185199666822 0.008265181219998328 0.07388791500976077 0.012312457989005633 0.06121836451257414 -0.006510808461815853 -0.015368833586829451 -0.0038486491418977882 -0.02524512067957911 0.029582053293581802 0.012312457989005625 0.10835854895378055 -0.047111891835155795 0.017415378729145482 0.03900597118351109 -0.004136487624659385 0.00752970539800577 -0.01172269754956769 0.061218364512574154 -0.047111891835155795 0.2382833062127978;
	("state6") -0.05622995402924162 0.007044337044009673 -0.01967804805088117 -0.09264962203079705 0.11239164353329482 0.05886297457941422 0.30174085621477337 -0.41278329679769865 0.023857363754676748 -0.009375942705893455 -0.010890591644260426 -0.0021430819225486987 0.0030607655174551547 0.0022345202969976576 -0.005066247340848264 0.0022878800792451915 -0.009375942705893453 0.026240384361988046 0.0012655155754019345 5.879867731867897E-4 -0.007592672353927142 0.0024541551027541177 -0.008059738552565587 -5.423312355801466E-4 -0.010890591644260428 0.0012655155754019327 0.051890557652745355 0.001126399632018795 -0.004478548616043337 -0.010351805977173077 -0.002123744030331126 -0.006398284951554591 -0.0021430819225486987 5.879867731867906E-4 0.001126399632018796 0.04804075048594037 0.018531351556737033 0.016823432751090873 0.011413556141807078 -0.005334123326364086 0.0030607655174551543 -0.007592672353927143 -0.00447854861604334 0.018531351556737033 0.043941659259076574 0.020153883798238285 0.0029993177176806116 0.0015144435724222891 0.0022345202969976576 0.0024541551027541177 -0.010351805977173077 0.016823432751090873 0.020153883798238282 0.09938253055729458 0.037439618164946495 0.035815831518546296 -0.005066247340848262 -0.008059738552565587 -0.0021237440303311255 0.011413556141807078 0.0029993177176806125 0.037439618164946495 0.0634789515922255 0.008719107734020492 0.0022878800792451915 -5.423312355801475E-4 -0.006398284951554593 -0.005334123326364086 0.0015144435724222896 0.035815831518546296 0.008719107734020492 0.07373073192730023;
	("state7") -0.21191319088205096 -0.26665946444051813 -0.2779333765274111 0.31335364753939887 0.0017415534943598075 -0.8651834613363506 -0.13184156363779712 0.20289141461379723 0.014928936428253456 -0.003092582668610948 -0.0037745332915096116 0.0030728512220839325 -0.0010596057355523624 0.013199011614597111 0.006708620532784926 -0.006810235384757888 -0.003092582668610948 0.020309788914536234 4.933394613687252E-4 0.006067039741711861 0.012706049465274732 -3.4410457258478864E-4 -0.008224157046621175 -0.0036340858782607896 -0.00377453329150961 4.933394613687243E-4 0.022237316988494123 6.487650897231629E-4 -0.007547395502483621 -0.02235682981650386 0.005206479929034557 0.009467274035379777 0.003072851222083932 0.006067039741711862 6.487650897231629E-4 0.029894872842521965 0.021312609936277253 0.03675935891990839 0.017995510882226822 -4.605297783290248E-4 -0.0010596057355523622 0.012706049465274729 -0.007547395502483619 0.021312609936277253 0.0758860343506745 0.07500528221959844 0.04544921478668846 -0.007445296720593944 0.013199011614597113 -3.441045725847882E-4 -0.022356829816503863 0.0367593589199084 0.07500528221959844 0.16470569357484408 0.06959469292447179 -0.0029550211858124335 0.006708620532784927 -0.008224157046621175 0.0052064799290345515 0.017995510882226826 0.045449214786688466 0.06959469292447179 0.11509120258591835 -0.009783864784739353 -0.006810235384757886 -0.003634085878260789 0.009467274035379777 -4.6052977832902395E-4 -0.007445296720593943 -0.002955021185812432 -0.009783864784739353 0.048863838216425766;
	("state8") -0.10267500566881207 0.07114549646812299 -0.2747068459930498 -0.37724219388044006 -0.4299830332536632 0.09202549504465869 0.3990630881978126 0.4381533763582534 0.061345241316345986 0.011550816520623893 -0.015623699990474568 -0.032698283039988535 0.003941980202686649 -0.011504213899534408 0.036905999139800645 -0.03617584042397446 0.011550816520623893 0.01897586780522781 0.0023448551710728263 -0.0034087427267187713 -0.0010109437085354068 -0.004397827345912865 0.001365052073816158 -0.0047245845946135845 -0.015623699990474568 0.002344855171072824 0.07964020369504256 -0.010795889987506569 -0.004586788279832447 0.017203340437645744 -0.019177212634688544 0.034230067399388935 -0.032698283039988535 -0.003408742726718772 -0.010795889987506569 0.0781263607841281 -0.006102544937347366 0.011196537015204506 -0.010070304612920848 0.03560672309673922 0.003941980202686649 -0.0010109437085354077 -0.0045867882798324485 -0.006102544937347366 0.05153368620573562 0.018971495657213032 0.004802354932825637 0.0077292299872027855 -0.011504213899534405 -0.004397827345912865 0.017203340437645747 0.011196537015204506 0.018971495657213032 0.09620569729559744 -0.0033003415785152115 0.020264975162516734 0.03690599913980064 0.0013650520738161588 -0.01917721263468854 -0.010070304612920838 0.004802354932825635 -0.003300341578515215 0.07557019056313044 -0.0379326028919821 -0.03617584042397446 -0.004724584594613585 0.034230067399388935 0.03560672309673922 0.007729229987202787 0.020264975162516734 -0.03793260289198211 0.07259722062356522;
	("state9") 0.029758157415806823 0.10989443884842075 -0.3569791312815239 0.11338828587856871 0.4063305322014285 -0.12921924967298054 -0.22334445855339405 0.750727072010538 0.020079823179418005 -0.012024622620324703 -0.008343198205055653 -0.011371931044481151 0.007305425810538341 0.008073521611485342 -0.009811000301427737 0.0023124487665232758 -0.0120246226203247 0.04958621174680119 0.012705666182395662 0.04273461599417365 -0.027669933151700687 -0.052119294157129174 -0.04408668720959865 -0.0068590939752477915 -0.008343198205055653 0.012705666182395662 0.018289425428151068 0.009039471131281139 -0.00889236654197266 -0.010109447707537685 0.0033217031661320322 4.655504116474892E-4 -0.011371931044481151 0.04273461599417364 0.009039471131281139 0.08766792854427377 -0.01054024043072727 -0.047539002964129 -0.053208168900626 -0.004695729172971811 0.007305425810538341 -0.027669933151700687 -0.008892366541972656 -0.01054024043072727 0.06853308423967693 0.08880703700024062 0.07078777803370859 0.01753043909487132 0.008073521611485342 -0.052119294157129174 -0.010109447707537685 -0.04753900296412901 0.08880703700024063 0.1930121420302191 0.1555513025287484 0.01952724713318315 -0.009811000301427737 -0.04408668720959865 0.0033217031661320322 -0.053208168900626004 0.0707877780337086 0.1555513025287484 0.19532692064537407 0.015970459923453636 0.0023124487665232758 -0.006859093975247791 4.655504116474892E-4 -0.004695729172971812 0.01753043909487132 0.01952724713318315 0.01597045992345364 0.02935325469268289;
	("state10") -0.003903348144530436 -0.026639557251520545 -0.25768394638589276 0.15241658174979833 0.1369699539728509 1.2172750393889233 -0.08177960799270191 0.26505647443190733 0.011626769100512645 7.692819029291649E-4 0.0017216323073190932 -9.00057252302044E-4 -0.004139128260430049 9.130391670172526E-4 3.214952153899719E-5 0.006497406331350592 7.692819029291649E-4 0.010365431079368546 8.212017089256617E-4 -4.6952294002766497E-4 -0.001955550948965428 4.360557871493966E-4 2.344484962010657E-5 0.0030915468342057897 0.001721632307319094 8.212017089256617E-4 0.011852312614454404 -0.0011408409990178083 -0.004372779565830731 9.846814794132594E-4 6.937860289490076E-5 0.00695776560951434 -9.000572523020438E-4 -4.695229400276651E-4 -0.0011408409990178083 0.0116687209357381 0.002242110819842069 -6.195636825871312E-4 -2.3760233926258412E-4 -0.004101418841601218 -0.004139128260430048 -0.001955550948965428 -0.004372779565830731 0.0022421108198420695 0.020533505848142262 -0.0023184353718947916 -7.279179439879219E-5 -0.016511148363425477 9.130391670172525E-4 4.360557871493967E-4 9.846814794132594E-4 -6.195636825871312E-4 -0.002318435371894791 0.010523630039155036 3.952332657550044E-5 0.00369622562951918 3.214952153899727E-5 2.344484962010722E-5 6.937860289490082E-5 -2.376023392625837E-4 -7.279179439879263E-5 3.952332657550044E-5 0.010041907186276282 2.235135996732433E-4 0.00649740633135059 0.0030915468342057892 0.006957765609514339 -0.004101418841601218 -0.016511148363425477 0.003696225629519179 2.2351359967324395E-4 0.036170165844207895;
	("state11") 0.10340462706849132 0.03158186351891507 -0.1633516349047507 0.15272815737955636 0.2171072751036924 -0.17728597451777914 0.03452185328317133 0.20958897517188965 0.012866050692851214 0.0048437202536345736 -0.002866340006993991 0.004403530714200157 -0.004021823049565885 8.205861087864606E-4 -0.0011624594706097428 -0.0069748446503706705 0.0048437202536345736 0.03446036562887205 -0.018167969115349875 0.009699938916166415 -0.02352876157029157 0.019820515782269656 0.010893500644337044 -0.009374101655135367 -0.002866340006993992 -0.018167969115349875 0.02575968618575983 -0.009490745969367565 0.01511223229933507 -0.02119374992146624 -0.017112023108940187 0.0042660436982412415 0.004403530714200157 0.009699938916166417 -0.009490745969367564 0.030064301768845135 -0.007389786004520475 0.026897298731869683 0.017820140878549343 -0.004614039382983624 -0.004021823049565886 -0.023528761570291566 0.01511223229933507 -0.007389786004520475 0.04198284970033606 -0.006139739443286027 -0.005111643439814176 0.005230298335617771 8.205861087864606E-4 0.019820515782269656 -0.02119374992146624 0.026897298731869683 -0.006139739443286027 0.11008554379950151 0.039937809509124636 0.007843891258433162 -0.0011624594706097428 0.010893500644337044 -0.017112023108940187 0.01782014087854934 -0.005111643439814179 0.039937809509124636 0.054928933690383125 0.011095592344622415 -0.006974844650370672 -0.009374101655135367 0.0042660436982412415 -0.004614039382983629 0.005230298335617771 0.007843891258433164 0.011095592344622412 0.030626856659425546;
	("state12") -0.17954842193521842 -0.02806780647812279 -0.13890629943893792 -0.02392291361847125 0.40622756994794224 -0.4984611356695742 -0.5209073273106449 0.3627469119629179 0.051135871300818606 -0.006007636146875291 -0.0059215077958119115 0.006476483614495941 -0.03560374160174467 0.025072701624223374 0.004879952168219448 0.00473896845744965 -0.006007636146875291 0.08395480083047008 -0.0012622897511668507 -0.004312016792948611 -0.007248257770439216 -0.027100727868349016 -0.015807703007757825 -0.012540499468837637 -0.0059215077958119115 -0.0012622897511668507 0.03601835125461815 4.18249628492862E-5 0.009366882731519723 -0.0246029906987228 0.0034403056574972175 0.004460425311331612 0.006476483614495941 -0.004312016792948611 4.18249628492862E-5 0.06292223753995542 0.01838929716085475 0.04531659706307231 0.030788006004664283 -0.009915552673940307 -0.03560374160174467 -0.007248257770439216 0.009366882731519723 0.01838929716085475 0.13667108292000574 0.05292401818088677 0.044763558178794016 0.01920178086950863 0.025072701624223374 -0.027100727868349016 -0.0246029906987228 0.04531659706307231 0.05292401818088677 0.2440103879540138 0.07494932425179177 0.051633748436495 0.004879952168219448 -0.015807703007757825 0.0034403056574972175 0.030788006004664283 0.044763558178794016 0.07494932425179177 0.1337021212376802 0.04059560806113604 0.00473896845744965 -0.012540499468837637 0.004460425311331612 -0.009915552673940307 0.01920178086950863 0.051633748436495 0.04059560806113604 0.11393688644120549;
}


// Loglikelihood: 713863.198360
// BIC Score: 709181.804878

